digraph Tree {
node [shape=box, style="filled, rounded", color="black", fontname=helvetica] ;
edge [fontname=helvetica] ;
0 [label=<OverallQual &le; 7.5<br/>mse = 6224026470.11<br/>samples = 978<br/>value = 181410.4663>, fillcolor="#e5813947"] ;
1 [label=<OverallQual &le; 6.5<br/>mse = 2573326334.36<br/>samples = 828<br/>value = 158927.1667>, fillcolor="#e581393a"] ;
0 -> 1 [labeldistance=2.5, labelangle=45, headlabel="True"] ;
2 [label=<GrLivArea &le; 1378.5<br/>mse = 1473592836.5<br/>samples = 611<br/>value = 140745.3568>, fillcolor="#e581392f"] ;
1 -> 2 ;
3 [label=<TotalBsmtSF &le; 974.5<br/>mse = 883828239.714<br/>samples = 367<br/>value = 124482.2507>, fillcolor="#e5813926"] ;
2 -> 3 ;
4 [label=<Y &le; 0.5<br/>mse = 700582075.966<br/>samples = 226<br/>value = 111827.2876>, fillcolor="#e581391f"] ;
3 -> 4 ;
5 [label=<LotFrontage &le; 51.5<br/>mse = 591947819.589<br/>samples = 37<br/>value = 79527.2432>, fillcolor="#e581390c"] ;
4 -> 5 ;
6 [label=<mse = 427013190.89<br/>samples = 10<br/>value = 58401.1>, fillcolor="#e5813900"] ;
5 -> 6 ;
7 [label=<BsmtUnfSF &le; 584.0<br/>mse = 426510503.081<br/>samples = 27<br/>value = 87351.7407>, fillcolor="#e5813911"] ;
5 -> 7 ;
8 [label=<mse = 305185791.64<br/>samples = 17<br/>value = 78911.3529>, fillcolor="#e581390c"] ;
7 -> 8 ;
9 [label=<mse = 305770241.44<br/>samples = 10<br/>value = 101700.4>, fillcolor="#e5813919"] ;
7 -> 9 ;
10 [label=<BsmtFinSF1 &le; 369.5<br/>mse = 477622595.779<br/>samples = 189<br/>value = 118150.5767>, fillcolor="#e5813922"] ;
4 -> 10 ;
11 [label=<OverallCond &le; 4.5<br/>mse = 425093971.04<br/>samples = 98<br/>value = 108860.9796>, fillcolor="#e581391d"] ;
10 -> 11 ;
12 [label=<mse = 199089256.198<br/>samples = 11<br/>value = 85627.2727>, fillcolor="#e5813910"] ;
11 -> 12 ;
13 [label=<TA &le; 0.5<br/>mse = 376788590.796<br/>samples = 87<br/>value = 111798.5747>, fillcolor="#e581391f"] ;
11 -> 13 ;
14 [label=<TotalBsmtSF &le; 681.5<br/>mse = 461242475.0<br/>samples = 20<br/>value = 97005.0>, fillcolor="#e5813916"] ;
13 -> 14 ;
15 [label=<mse = 382060000.0<br/>samples = 10<br/>value = 87300.0>, fillcolor="#e5813911"] ;
14 -> 15 ;
16 [label=<mse = 352050900.0<br/>samples = 10<br/>value = 106710.0>, fillcolor="#e581391c"] ;
14 -> 16 ;
17 [label=<TotalBsmtSF &le; 605.5<br/>mse = 266749172.514<br/>samples = 67<br/>value = 116214.5672>, fillcolor="#e5813921"] ;
13 -> 17 ;
18 [label=<mse = 189288622.222<br/>samples = 15<br/>value = 101406.6667>, fillcolor="#e5813919"] ;
17 -> 18 ;
19 [label=<BsmtUnfSF &le; 728.0<br/>mse = 207595674.917<br/>samples = 52<br/>value = 120486.0769>, fillcolor="#e5813924"] ;
17 -> 19 ;
20 [label=<OverallQual &le; 5.5<br/>mse = 166329061.359<br/>samples = 37<br/>value = 124583.7838>, fillcolor="#e5813926"] ;
19 -> 20 ;
21 [label=<1stFlrSF &le; 893.0<br/>mse = 102715000.0<br/>samples = 27<br/>value = 120933.3333>, fillcolor="#e5813924"] ;
20 -> 21 ;
22 [label=<mse = 67239171.5976<br/>samples = 13<br/>value = 115992.3077>, fillcolor="#e5813921"] ;
21 -> 22 ;
23 [label=<mse = 91936326.5306<br/>samples = 14<br/>value = 125521.4286>, fillcolor="#e5813927"] ;
21 -> 23 ;
24 [label=<mse = 204962400.0<br/>samples = 10<br/>value = 134440.0>, fillcolor="#e581392c"] ;
20 -> 24 ;
25 [label=<mse = 165803225.173<br/>samples = 15<br/>value = 110378.4>, fillcolor="#e581391e"] ;
19 -> 25 ;
26 [label=<GarageCars &le; 1.5<br/>mse = 341173420.095<br/>samples = 91<br/>value = 128154.7582>, fillcolor="#e5813928"] ;
10 -> 26 ;
27 [label=<GrLivArea &le; 893.0<br/>mse = 345333439.383<br/>samples = 53<br/>value = 121112.8868>, fillcolor="#e5813924"] ;
26 -> 27 ;
28 [label=<YearRemodAdd &le; 1971.5<br/>mse = 374277033.614<br/>samples = 22<br/>value = 112276.5>, fillcolor="#e581391f"] ;
27 -> 28 ;
29 [label=<mse = 416177723.058<br/>samples = 11<br/>value = 104434.8182>, fillcolor="#e581391a"] ;
28 -> 29 ;
30 [label=<mse = 209392396.694<br/>samples = 11<br/>value = 120118.1818>, fillcolor="#e5813924"] ;
28 -> 30 ;
31 [label=<OverallCond &le; 5.5<br/>mse = 230054739.854<br/>samples = 31<br/>value = 127383.871>, fillcolor="#e5813928"] ;
27 -> 31 ;
32 [label=<mse = 251020972.222<br/>samples = 12<br/>value = 119583.3333>, fillcolor="#e5813923"] ;
31 -> 32 ;
33 [label=<mse = 154110415.512<br/>samples = 19<br/>value = 132310.5263>, fillcolor="#e581392b"] ;
31 -> 33 ;
34 [label=<GrLivArea &le; 979.0<br/>mse = 169746149.585<br/>samples = 38<br/>value = 137976.3158>, fillcolor="#e581392e"] ;
26 -> 34 ;
35 [label=<BsmtUnfSF &le; 190.5<br/>mse = 96717331.9616<br/>samples = 27<br/>value = 132737.037>, fillcolor="#e581392b"] ;
34 -> 35 ;
36 [label=<mse = 38934636.6782<br/>samples = 17<br/>value = 138214.7059>, fillcolor="#e581392e"] ;
35 -> 36 ;
37 [label=<mse = 57225625.0<br/>samples = 10<br/>value = 123425.0>, fillcolor="#e5813925"] ;
35 -> 37 ;
38 [label=<mse = 116240495.868<br/>samples = 11<br/>value = 150836.3636>, fillcolor="#e5813935"] ;
34 -> 38 ;
39 [label=<YearBuilt &le; 1959.5<br/>mse = 509416456.949<br/>samples = 141<br/>value = 144766.0922>, fillcolor="#e5813932"] ;
3 -> 39 ;
40 [label=<NAmes &le; 0.5<br/>mse = 436302681.207<br/>samples = 48<br/>value = 133098.9583>, fillcolor="#e581392b"] ;
39 -> 40 ;
41 [label=<mse = 541608632.271<br/>samples = 19<br/>value = 119109.2105>, fillcolor="#e5813923"] ;
40 -> 41 ;
42 [label=<1stFlrSF &le; 1105.5<br/>mse = 155073341.26<br/>samples = 29<br/>value = 142264.6552>, fillcolor="#e5813930"] ;
40 -> 42 ;
43 [label=<mse = 108592337.372<br/>samples = 14<br/>value = 134144.6429>, fillcolor="#e581392c"] ;
42 -> 43 ;
44 [label=<mse = 79480288.8889<br/>samples = 15<br/>value = 149843.3333>, fillcolor="#e5813935"] ;
42 -> 44 ;
45 [label=<1stFlrSF &le; 1156.5<br/>mse = 440634645.576<br/>samples = 93<br/>value = 150787.8387>, fillcolor="#e5813935"] ;
39 -> 45 ;
46 [label=<Attchd &le; 0.5<br/>mse = 255267999.405<br/>samples = 58<br/>value = 142936.2069>, fillcolor="#e5813931"] ;
45 -> 46 ;
47 [label=<mse = 367741943.359<br/>samples = 16<br/>value = 132609.375>, fillcolor="#e581392b"] ;
46 -> 47 ;
48 [label=<1stFlrSF &le; 1105.0<br/>mse = 156318102.324<br/>samples = 42<br/>value = 146870.2381>, fillcolor="#e5813933"] ;
46 -> 48 ;
49 [label=<OpenPorchSF &le; 52.0<br/>mse = 94590933.3333<br/>samples = 30<br/>value = 143270.0>, fillcolor="#e5813931"] ;
48 -> 49 ;
50 [label=<YearRemodAdd &le; 1969.5<br/>mse = 73571525.0<br/>samples = 20<br/>value = 145785.0>, fillcolor="#e5813932"] ;
49 -> 50 ;
51 [label=<mse = 68663000.0<br/>samples = 10<br/>value = 141250.0>, fillcolor="#e5813930"] ;
50 -> 51 ;
52 [label=<mse = 37347600.0<br/>samples = 10<br/>value = 150320.0>, fillcolor="#e5813935"] ;
50 -> 52 ;
53 [label=<mse = 98678400.0<br/>samples = 10<br/>value = 138240.0>, fillcolor="#e581392e"] ;
49 -> 53 ;
54 [label=<mse = 197221024.306<br/>samples = 12<br/>value = 155870.8333>, fillcolor="#e5813938"] ;
48 -> 54 ;
55 [label=<YearRemodAdd &le; 1973.0<br/>mse = 476360621.873<br/>samples = 35<br/>value = 163799.1143>, fillcolor="#e581393d"] ;
45 -> 55 ;
56 [label=<mse = 329695969.388<br/>samples = 14<br/>value = 150921.4286>, fillcolor="#e5813935"] ;
55 -> 56 ;
57 [label=<TotalBsmtSF &le; 1211.0<br/>mse = 389876179.8<br/>samples = 21<br/>value = 172384.2381>, fillcolor="#e5813942"] ;
55 -> 57 ;
58 [label=<mse = 83972995.21<br/>samples = 10<br/>value = 165023.7>, fillcolor="#e581393d"] ;
57 -> 58 ;
59 [label=<mse = 573942881.322<br/>samples = 11<br/>value = 179075.6364>, fillcolor="#e5813945"] ;
57 -> 59 ;
60 [label=<BsmtFinSF1 &le; 450.5<br/>mse = 1364484151.78<br/>samples = 244<br/>value = 165206.668>, fillcolor="#e581393d"] ;
2 -> 60 ;
61 [label=<OverallQual &le; 5.5<br/>mse = 1037769393.65<br/>samples = 148<br/>value = 152945.7905>, fillcolor="#e5813936"] ;
60 -> 61 ;
62 [label=<WoodDeckSF &le; 96.0<br/>mse = 685053496.825<br/>samples = 66<br/>value = 134907.197>, fillcolor="#e581392c"] ;
61 -> 62 ;
63 [label=<YearBuilt &le; 1927.0<br/>mse = 527994969.126<br/>samples = 51<br/>value = 127746.8235>, fillcolor="#e5813928"] ;
62 -> 63 ;
64 [label=<mse = 410991358.025<br/>samples = 18<br/>value = 111844.4444>, fillcolor="#e581391f"] ;
63 -> 64 ;
65 [label=<BsmtFinSF1 &le; 28.5<br/>mse = 378638778.674<br/>samples = 33<br/>value = 136420.8485>, fillcolor="#e581392d"] ;
63 -> 65 ;
66 [label=<mse = 311860462.333<br/>samples = 18<br/>value = 127703.0>, fillcolor="#e5813928"] ;
65 -> 66 ;
67 [label=<mse = 258130429.262<br/>samples = 15<br/>value = 146882.2667>, fillcolor="#e5813933"] ;
65 -> 67 ;
68 [label=<mse = 452039111.849<br/>samples = 15<br/>value = 159252.4667>, fillcolor="#e581393a"] ;
62 -> 68 ;
69 [label=<GarageCars &le; 1.5<br/>mse = 848965189.688<br/>samples = 82<br/>value = 167464.6585>, fillcolor="#e581393f"] ;
61 -> 69 ;
70 [label=<YearRemodAdd &le; 1974.0<br/>mse = 684828584.594<br/>samples = 23<br/>value = 144244.5652>, fillcolor="#e5813931"] ;
69 -> 70 ;
71 [label=<mse = 435889586.777<br/>samples = 11<br/>value = 127963.6364>, fillcolor="#e5813928"] ;
70 -> 71 ;
72 [label=<mse = 447311783.854<br/>samples = 12<br/>value = 159168.75>, fillcolor="#e581393a"] ;
70 -> 72 ;
73 [label=<OverallCond &le; 6.5<br/>mse = 620827757.128<br/>samples = 59<br/>value = 176516.5593>, fillcolor="#e5813944"] ;
69 -> 73 ;
74 [label=<GarageYrBlt &le; 1982.5<br/>mse = 317429060.818<br/>samples = 45<br/>value = 169927.9333>, fillcolor="#e5813940"] ;
73 -> 74 ;
75 [label=<mse = 381043271.484<br/>samples = 16<br/>value = 158403.125>, fillcolor="#e581393a"] ;
74 -> 75 ;
76 [label=<RFn &le; 0.5<br/>mse = 168620187.006<br/>samples = 29<br/>value = 176286.4483>, fillcolor="#e5813944"] ;
74 -> 76 ;
77 [label=<mse = 155593243.667<br/>samples = 18<br/>value = 171829.0>, fillcolor="#e5813941"] ;
76 -> 77 ;
78 [label=<mse = 104221820.248<br/>samples = 11<br/>value = 183580.4545>, fillcolor="#e5813948"] ;
76 -> 78 ;
79 [label=<mse = 1008009638.78<br/>samples = 14<br/>value = 197694.2857>, fillcolor="#e5813950"] ;
73 -> 79 ;
80 [label=<LotArea &le; 13622.5<br/>mse = 1279119374.73<br/>samples = 96<br/>value = 184108.8542>, fillcolor="#e5813948"] ;
60 -> 80 ;
81 [label=<2ndFlrSF &le; 852.0<br/>mse = 1105714612.86<br/>samples = 74<br/>value = 176039.1892>, fillcolor="#e5813944"] ;
80 -> 81 ;
82 [label=<YearBuilt &le; 1963.5<br/>mse = 590245565.289<br/>samples = 55<br/>value = 166717.2727>, fillcolor="#e581393e"] ;
81 -> 82 ;
83 [label=<OverallQual &le; 5.5<br/>mse = 244921835.938<br/>samples = 24<br/>value = 150981.25>, fillcolor="#e5813935"] ;
82 -> 83 ;
84 [label=<mse = 289911875.0<br/>samples = 12<br/>value = 143825.0>, fillcolor="#e5813931"] ;
83 -> 84 ;
85 [label=<mse = 97507968.75<br/>samples = 12<br/>value = 158137.5>, fillcolor="#e5813939"] ;
83 -> 85 ;
86 [label=<GarageArea &le; 495.0<br/>mse = 517466451.613<br/>samples = 31<br/>value = 178900.0>, fillcolor="#e5813945"] ;
82 -> 86 ;
87 [label=<mse = 452959506.173<br/>samples = 18<br/>value = 170222.2222>, fillcolor="#e5813940"] ;
86 -> 87 ;
88 [label=<mse = 358147455.621<br/>samples = 13<br/>value = 190915.3846>, fillcolor="#e581394c"] ;
86 -> 88 ;
89 [label=<mse = 1618151675.9<br/>samples = 19<br/>value = 203023.6842>, fillcolor="#e5813953"] ;
81 -> 89 ;
90 [label=<OverallQual &le; 5.5<br/>mse = 906586472.107<br/>samples = 22<br/>value = 211252.2727>, fillcolor="#e5813958"] ;
80 -> 90 ;
91 [label=<mse = 971375165.289<br/>samples = 11<br/>value = 193877.2727>, fillcolor="#e581394e"] ;
90 -> 91 ;
92 [label=<mse = 238016528.926<br/>samples = 11<br/>value = 228627.2727>, fillcolor="#e5813962"] ;
90 -> 92 ;
93 [label=<GrLivArea &le; 1822.0<br/>mse = 2118192525.12<br/>samples = 217<br/>value = 210121.1106>, fillcolor="#e5813957"] ;
1 -> 93 ;
94 [label=<TotalBsmtSF &le; 1492.0<br/>mse = 1145082897.87<br/>samples = 144<br/>value = 191654.2639>, fillcolor="#e581394d"] ;
93 -> 94 ;
95 [label=<Attchd &le; 0.5<br/>mse = 693336024.793<br/>samples = 121<br/>value = 182737.5537>, fillcolor="#e5813948"] ;
94 -> 95 ;
96 [label=<HalfBath &le; 0.5<br/>mse = 406859078.905<br/>samples = 33<br/>value = 160500.0606>, fillcolor="#e581393b"] ;
95 -> 96 ;
97 [label=<mse = 325441538.461<br/>samples = 13<br/>value = 146800.0>, fillcolor="#e5813933"] ;
96 -> 97 ;
98 [label=<BedroomAbvGr &le; 2.5<br/>mse = 258481174.19<br/>samples = 20<br/>value = 169405.1>, fillcolor="#e5813940"] ;
96 -> 98 ;
99 [label=<mse = 99077379.36<br/>samples = 10<br/>value = 158265.2>, fillcolor="#e5813939"] ;
98 -> 99 ;
100 [label=<mse = 169690225.0<br/>samples = 10<br/>value = 180545.0>, fillcolor="#e5813946"] ;
98 -> 100 ;
101 [label=<GarageArea &le; 528.5<br/>mse = 545785171.714<br/>samples = 88<br/>value = 191076.6136>, fillcolor="#e581394c"] ;
95 -> 101 ;
102 [label=<WoodDeckSF &le; 126.0<br/>mse = 398099247.637<br/>samples = 54<br/>value = 182410.2593>, fillcolor="#e5813947"] ;
101 -> 102 ;
103 [label=<OpenPorchSF &le; 17.0<br/>mse = 265438522.393<br/>samples = 31<br/>value = 172679.1613>, fillcolor="#e5813942"] ;
102 -> 103 ;
104 [label=<mse = 142875136.0<br/>samples = 10<br/>value = 157857.0>, fillcolor="#e5813939"] ;
103 -> 104 ;
105 [label=<2ndFlrSF &le; 689.5<br/>mse = 169366882.698<br/>samples = 21<br/>value = 179737.3333>, fillcolor="#e5813946"] ;
103 -> 105 ;
106 [label=<mse = 215941186.49<br/>samples = 10<br/>value = 174561.9>, fillcolor="#e5813943"] ;
105 -> 106 ;
107 [label=<mse = 80540051.6529<br/>samples = 11<br/>value = 184442.2727>, fillcolor="#e5813949"] ;
105 -> 107 ;
108 [label=<Id &le; 824.0<br/>mse = 277246493.384<br/>samples = 23<br/>value = 195526.087>, fillcolor="#e581394f"] ;
102 -> 108 ;
109 [label=<mse = 432698347.107<br/>samples = 11<br/>value = 201772.7273>, fillcolor="#e5813953"] ;
108 -> 109 ;
110 [label=<mse = 66192083.3333<br/>samples = 12<br/>value = 189800.0>, fillcolor="#e581394c"] ;
108 -> 110 ;
111 [label=<BsmtUnfSF &le; 765.0<br/>mse = 471606174.145<br/>samples = 34<br/>value = 204840.8235>, fillcolor="#e5813954"] ;
101 -> 111 ;
112 [label=<mse = 446112507.073<br/>samples = 17<br/>value = 212757.5294>, fillcolor="#e5813959"] ;
111 -> 112 ;
113 [label=<mse = 371751377.163<br/>samples = 17<br/>value = 196924.1176>, fillcolor="#e5813950"] ;
111 -> 113 ;
114 [label=<CollgCr &le; 0.5<br/>mse = 902869344.166<br/>samples = 23<br/>value = 238563.913>, fillcolor="#e5813968"] ;
94 -> 114 ;
115 [label=<mse = 649570649.417<br/>samples = 12<br/>value = 256147.5>, fillcolor="#e5813972"] ;
114 -> 115 ;
116 [label=<mse = 473952396.694<br/>samples = 11<br/>value = 219381.8182>, fillcolor="#e581395d"] ;
114 -> 116 ;
117 [label=<BsmtFinSF1 &le; 952.0<br/>mse = 2038064376.06<br/>samples = 73<br/>value = 246548.863>, fillcolor="#e581396c"] ;
93 -> 117 ;
118 [label=<GrLivArea &le; 2289.0<br/>mse = 1204332696.2<br/>samples = 57<br/>value = 233435.6316>, fillcolor="#e5813965"] ;
117 -> 118 ;
119 [label=<YearRemodAdd &le; 1990.5<br/>mse = 1023753266.17<br/>samples = 47<br/>value = 226131.9574>, fillcolor="#e5813961"] ;
118 -> 119 ;
120 [label=<mse = 938649722.222<br/>samples = 12<br/>value = 200783.3333>, fillcolor="#e5813952"] ;
119 -> 120 ;
121 [label=<LotArea &le; 13764.0<br/>mse = 757095095.221<br/>samples = 35<br/>value = 234822.9143>, fillcolor="#e5813966"] ;
119 -> 121 ;
122 [label=<GarageArea &le; 547.5<br/>mse = 437080808.858<br/>samples = 25<br/>value = 226878.68>, fillcolor="#e5813961"] ;
121 -> 122 ;
123 [label=<mse = 539610388.43<br/>samples = 11<br/>value = 213235.4545>, fillcolor="#e5813959"] ;
122 -> 123 ;
124 [label=<mse = 95359403.3725<br/>samples = 14<br/>value = 237598.3571>, fillcolor="#e5813967"] ;
122 -> 124 ;
125 [label=<mse = 1004910800.25<br/>samples = 10<br/>value = 254683.5>, fillcolor="#e5813971"] ;
121 -> 125 ;
126 [label=<mse = 623979477.69<br/>samples = 10<br/>value = 267762.9>, fillcolor="#e5813979"] ;
118 -> 126 ;
127 [label=<mse = 2213263150.94<br/>samples = 16<br/>value = 293264.75>, fillcolor="#e5813987"] ;
117 -> 127 ;
128 [label=<OverallQual &le; 8.5<br/>mse = 8182788629.59<br/>samples = 150<br/>value = 305518.28>, fillcolor="#e581398e"] ;
0 -> 128 [labeldistance=2.5, labelangle=-45, headlabel="False"] ;
129 [label=<GrLivArea &le; 1928.0<br/>mse = 3727778291.8<br/>samples = 116<br/>value = 278722.1724>, fillcolor="#e581397f"] ;
128 -> 129 ;
130 [label=<BsmtFinSF1 &le; 1063.5<br/>mse = 2117091083.85<br/>samples = 62<br/>value = 251128.129>, fillcolor="#e581396f"] ;
129 -> 130 ;
131 [label=<Gd &le; 0.5<br/>mse = 1391735915.95<br/>samples = 44<br/>value = 233806.9091>, fillcolor="#e5813965"] ;
130 -> 131 ;
132 [label=<mse = 681756332.01<br/>samples = 10<br/>value = 268298.3>, fillcolor="#e5813979"] ;
131 -> 132 ;
133 [label=<LotArea &le; 11097.5<br/>mse = 1147743180.59<br/>samples = 34<br/>value = 223662.3824>, fillcolor="#e581395f"] ;
131 -> 133 ;
134 [label=<WoodDeckSF &le; 131.5<br/>mse = 660422708.333<br/>samples = 24<br/>value = 210725.0>, fillcolor="#e5813958"] ;
133 -> 134 ;
135 [label=<mse = 506173553.719<br/>samples = 11<br/>value = 196990.9091>, fillcolor="#e5813950"] ;
134 -> 135 ;
136 [label=<mse = 496284023.669<br/>samples = 13<br/>value = 222346.1538>, fillcolor="#e581395e"] ;
134 -> 136 ;
137 [label=<mse = 951525278.89<br/>samples = 10<br/>value = 254712.1>, fillcolor="#e5813971"] ;
133 -> 137 ;
138 [label=<mse = 1364047935.1<br/>samples = 18<br/>value = 293468.8889>, fillcolor="#e5813987"] ;
130 -> 138 ;
139 [label=<1stFlrSF &le; 1383.5<br/>mse = 3699097689.95<br/>samples = 54<br/>value = 310404.2222>, fillcolor="#e5813991"] ;
129 -> 139 ;
140 [label=<GarageArea &le; 652.0<br/>mse = 2224513845.39<br/>samples = 31<br/>value = 282077.9677>, fillcolor="#e5813981"] ;
139 -> 140 ;
141 [label=<mse = 1699610140.36<br/>samples = 10<br/>value = 238264.8>, fillcolor="#e5813968"] ;
140 -> 141 ;
142 [label=<OpenPorchSF &le; 76.5<br/>mse = 1125093757.19<br/>samples = 21<br/>value = 302941.381>, fillcolor="#e581398d"] ;
140 -> 142 ;
143 [label=<mse = 731128099.174<br/>samples = 11<br/>value = 282909.0909>, fillcolor="#e5813981"] ;
142 -> 143 ;
144 [label=<mse = 631469972.49<br/>samples = 10<br/>value = 324976.9>, fillcolor="#e5813999"] ;
142 -> 144 ;
145 [label=<VinylSd &le; 0.5<br/>mse = 3147490312.43<br/>samples = 23<br/>value = 348583.087>, fillcolor="#e58139a7"] ;
139 -> 145 ;
146 [label=<mse = 2117808055.56<br/>samples = 12<br/>value = 314116.6667>, fillcolor="#e5813993"] ;
145 -> 146 ;
147 [label=<mse = 1561112119.79<br/>samples = 11<br/>value = 386182.8182>, fillcolor="#e58139bd"] ;
145 -> 147 ;
148 [label=<GrLivArea &le; 2568.5<br/>mse = 12574496873.0<br/>samples = 34<br/>value = 396940.2941>, fillcolor="#e58139c3"] ;
128 -> 148 ;
149 [label=<BsmtFinSF1 &le; 1243.5<br/>mse = 3083089590.79<br/>samples = 24<br/>value = 353407.9583>, fillcolor="#e58139aa"] ;
148 -> 149 ;
150 [label=<mse = 978711249.917<br/>samples = 13<br/>value = 318737.9231>, fillcolor="#e5813996"] ;
149 -> 150 ;
151 [label=<mse = 2470681022.23<br/>samples = 11<br/>value = 394381.6364>, fillcolor="#e58139c1"] ;
149 -> 151 ;
152 [label=<mse = 19890149998.3<br/>samples = 10<br/>value = 501417.9>, fillcolor="#e58139ff"] ;
148 -> 152 ;
}